solver_type L2R_LR
nr_class 2
label 1 -1
nr_feature 84
bias -1
w
1.263825220467912 
0.1773466252754664 
-0.1828264275038111 
-0.8662339706842368 
0.3401207956762848 
-0.06010980145883148 
-0.1272739823409453 
-1.651165463457454 
0.3106736767354462 
0.6385748840507006 
-0.1159601574490311 
0.2815152978340301 
-0.2891035985426454 
-1.04036860944344 
-2.262860262413704 
-0.2776205372155061 
-0.4559627741230025 
-1.036202318108943 
-0.720465074736252 
0.6138125215806641 
0.1334034126254742 
-0.04862803887580223 
-0.4039545115329489 
-0.263968071658953 
-0.6127739536558323 
-0.7610740824799659 
-0.1553395846139796 
0.04932659151299598 
-0.3767100784265884 
-0.4255562966781434 
-0.6011090775357242 
-0.5284374098238465 
-0.5780906535688959 
-0.4698306800271293 
1.445021889705432 
-0.7579495312529286 
-1.461234926104114 
-0.08052130891732504 
-0.3146924239852532 
-0.4892967028499148 
0.07509044634140823 
-0.1055800622974137 
-1.134399391386971 
0.002932950447695534 
-0.539970640175216 
0.2227221393873798 
-1.054604401633471 
-0.6639613457473957 
-0.4452602419506573 
0.921988686249994 
-1.144812599677522 
-1.294821056476346 
-0.7181765232189252 
-0.8911693293524272 
-0.2982759217756813 
0.3338143089404405 
1.356178993833273 
-0.5504922002825559 
0.0441588255370276 
0.3390848127676117 
0.0611709681624531 
-1.315629997455352 
-0.6013806033540233 
-0.5772443016300998 
-0.2986782061146105 
-0.3385736188035218 
-0.1792973580666552 
0.03413462097476774 
-0.4680049090636402 
-0.8569897075486772 
-0.2738521008239182 
-0.1594419784736175 
-0.1372748499855674 
-0.0740851937983899 
-0.06445071749647552 
-0.2639373274971507 
-2.249539694244818 
0.0505055261796991 
0.6651120082646796 
-0.656734124586837 
-0.3808167813481984 
-0.1474693026784899 
-0.5111845770856245 
-0.5061021356541068 
