solver_type L2R_LR
nr_class 2
label 1 -1
nr_feature 84
bias -1
w
0.9703598359992101 
0.1346567902232312 
-0.1498056536809476 
-0.6865578093761937 
0.2653952810008343 
-0.002280475053804213 
-0.1054289264442647 
-1.284554386344938 
0.1461091112834712 
0.4969977371340373 
-0.06933033165529004 
0.216264215623241 
-0.2168702024532256 
-0.8171326840347291 
-1.746574083550187 
-0.2062628795772714 
-0.4142834735815215 
-0.8157174877463547 
-0.5623257768576067 
0.465387045321639 
0.07679648598387476 
-0.05128140845107256 
-0.3334676843245417 
-0.2316145248261141 
-0.4882675841193971 
-0.6139898138994851 
-0.132294830940332 
0.001404507387925455 
-0.3081581032449375 
-0.3110746298412501 
-0.4117642010285948 
-0.3943739470820818 
-0.443944087597664 
-0.3919950531805751 
1.152497778652511 
-0.6001111883517278 
-1.181161084941923 
-0.08025720917190803 
-0.2755668799715076 
-0.3698384647791597 
0.04389263915859878 
-0.09137134035833269 
-0.8032860002068987 
0.009236376847196071 
-0.4550870570138645 
0.1540974138797277 
-0.8252851994357417 
-0.5527485168733394 
-0.3792080793202366 
0.6222785109959297 
-0.7612238381602944 
-0.98633162280166 
-0.4535358019565194 
-0.6998910938344221 
-0.2706277431106711 
0.2129299204821552 
0.9875404257861368 
-0.4274726320036824 
0.1008688004283293 
0.2277467386308592 
0.01340168187030674 
-1.0007560769902 
-0.4943971994921265 
-0.4737543335419182 
-0.2426032027653515 
-0.2571989294172093 
-0.1271517775797527 
0.06065990326795112 
-0.3685435350301261 
-0.6517817878807787 
-0.1335581051589989 
-0.1779546318177194 
-0.2460742225512592 
-0.1024753381815013 
-0.07948199813587706 
-0.1882701547323924 
-1.721179820461507 
0.06339395145823233 
0.4586241559936001 
-0.5017179218755028 
-0.2751850609959951 
-0.1566934608482271 
-0.4214453718845681 
-0.392818393865285 
