solver_type L1R_LR
nr_class 2
label 1 -1
nr_feature 84
bias -1
w
0.9699112232819318 
0.1329889365286378 
-0.1524051754586755 
-0.6923578894693464 
0.2601026439980679 
-0.02813476904923624 
-0.1139711551682641 
-1.289346100081615 
0.1387461915935588 
0.483698970465434 
-0.08932977080191244 
0.1989688297023412 
-0.2207381402745131 
-0.8287602076771244 
-1.737984792753014 
-0.2172611193022697 
-0.7495291090189509 
-0.8241666939033095 
-0.5704449041311064 
0.4613276858123188 
0.08740842090769296 
-0.05926070352134985 
-0.4638463943256323 
-0.366384532422899 
-0.6182880170601422 
-0.737892563136788 
-0.2583917382717571 
-0.1222568030416471 
-0.433819198054362 
-0.4355947418161149 
-0.5305955529406851 
-0.5227076792144006 
-0.5676159194457937 
-0.5212080654433581 
1.021763494993746 
-0.7236224364673138 
-1.299843267357146 
-0.2069063138260096 
-0.3994876077012113 
-0.4992131767322072 
-0.07186729828035776 
-0.2193275708239568 
-0.8035774740135242 
0.01098517192860071 
-0.3133446936908408 
0.289862624556456 
-0.6862619741945719 
-0.4104134476996267 
-0.2380214506218578 
0.7617850168631296 
-0.6099534467249206 
-0.8389245870787282 
-0.3161762968650104 
-0.5533262053161768 
-0.1260793959238292 
0.3581165035950383 
1.12825734879523 
-0.2818776566485129 
0.2886277488418828 
0.3743205707557901 
0.1575877969972623 
-0.8604356206723648 
-0.4081018792987353 
-0.3296322028081364 
-0.2482804061651891 
-0.2666743979932152 
-0.1342471195913485 
0.04145977945687208 
-0.3811969680604728 
-0.6649111498611097 
-0.1420781448343753 
-0.1923563797529388 
-0.2583261560586343 
-0.1176803791719487 
-0.08913132046485077 
-0.1971579213167103 
-1.727280943484989 
0.05031942674037086 
0.4495543072584294 
-0.5110004011634514 
-0.2871013703150924 
-0.1629586991817943 
-0.5119372874510583 
-0.3996011282315144 
