solver_type L2R_L2LOSS_SVC_DUAL
nr_class 2
label 1 -1
nr_feature 84
bias -1
w
0.403849197441854 
0.05905569450241532 
-0.06394355996358742 
-0.2669497582778244 
0.1177461028267681 
-0.00864157391602147 
-0.05019587297064942 
-0.5106057143082613 
0.0603129406113122 
0.2076259872915938 
-0.02313087457859578 
0.09820992719410496 
-0.08663602680766221 
-0.3295594991188817 
-0.6600065503314291 
-0.09209776132415312 
-0.2842824718373577 
-0.3294694493748746 
-0.2321018903695216 
0.190535813066377 
0.0470584050348923 
-0.01590879951015627 
-0.137332039238139 
-0.09552991115924803 
-0.2039765595156576 
-0.2478655920069063 
-0.05612288039997299 
0.0003247251190240151 
-0.1164714558999638 
-0.1286198145190333 
-0.1748385281832535 
-0.1578263688556037 
-0.1711182354305585 
-0.169152946424816 
0.4380967337333291 
-0.2348581975666699 
-0.4714557244865091 
-0.03259888263320643 
-0.1209886478574502 
-0.1433863937577567 
0.02857699565643268 
-0.03689690323720214 
-0.3519361865901091 
0.0008050844739199252 
-0.1798618171007687 
0.05941563002747562 
-0.3345234505166025 
-0.2308874747194018 
-0.1480415372776221 
0.2481042823079942 
-0.3125529386609104 
-0.3917462906739737 
-0.1910806866710542 
-0.2902779604157924 
-0.1056153526084277 
0.1003180044498539 
0.3854708128887823 
-0.1770715001055825 
0.05709797171286823 
0.09545285286508513 
0.008153203605695544 
-0.4066827725794849 
-0.2216437228200411 
-0.1960678803705486 
-0.09974902986751238 
-0.1075676570236857 
-0.05059811396943689 
0.01139444889739851 
-0.1631030486866538 
-0.2602192786958094 
-0.05443882925455494 
-0.0708635849977043 
-0.09854619396248983 
-0.05006051900305385 
-0.02152334178797316 
-0.07478745827637995 
-0.6627218245309846 
0.03044653609699655 
0.1728075712144656 
-0.2057295118749941 
-0.103838015361842 
-0.06104479697644032 
-0.2058712694059365 
-0.1560267091984743 
